FANN_FLO_2.1
num_layers=3
learning_rate=0.700000
connection_rate=1.000000
network_type=0
learning_momentum=0.000000
training_algorithm=2
train_error_function=1
train_stop_function=0
cascade_output_change_fraction=0.010000
quickprop_decay=-0.000100
quickprop_mu=1.750000
rprop_increase_factor=1.200000
rprop_decrease_factor=0.500000
rprop_delta_min=0.000000
rprop_delta_max=50.000000
rprop_delta_zero=0.100000
cascade_output_stagnation_epochs=12
cascade_candidate_change_fraction=0.010000
cascade_candidate_stagnation_epochs=12
cascade_max_out_epochs=150
cascade_min_out_epochs=50
cascade_max_cand_epochs=150
cascade_min_cand_epochs=50
cascade_num_candidate_groups=2
bit_fail_limit=3.49999994039535522461e-01
cascade_candidate_limit=1.00000000000000000000e+03
cascade_weight_multiplier=4.00000005960464477539e-01
cascade_activation_functions_count=10
cascade_activation_functions=3 5 7 8 10 11 14 15 16 17 
cascade_activation_steepnesses_count=4
cascade_activation_steepnesses=2.50000000000000000000e-01 5.00000000000000000000e-01 7.50000000000000000000e-01 1.00000000000000000000e+00 
layer_sizes=3 7 2 
scale_included=0
neurons (num_inputs, activation_function, activation_steepness)=(0, 0, 0.00000000000000000000e+00) (0, 0, 0.00000000000000000000e+00) (0, 0, 0.00000000000000000000e+00) (3, 4, 5.00000000000000000000e-01) (3, 4, 5.00000000000000000000e-01) (3, 4, 5.00000000000000000000e-01) (3, 4, 5.00000000000000000000e-01) (3, 4, 5.00000000000000000000e-01) (3, 4, 5.00000000000000000000e-01) (0, 0, 0.00000000000000000000e+00) (7, 4, 5.00000000000000000000e-01) (0, 0, 0.00000000000000000000e+00) 
connections (connected_to_neuron, weight)=(0, -8.94452810287475585938e-01) (1, -9.06479060649871826172e-01) (2, 3.02835226058959960938e-01) (0, -3.92391324043273925781e-01) (1, 4.43033099174499511719e-01) (2, 9.88348722457885742188e-02) (0, 1.23790740966796875000e-01) (1, -2.26077795028686523438e-01) (2, 3.80772590637207031250e-01) (0, -7.91827142238616943359e-01) (1, 2.67318725585937500000e-01) (2, -8.44320952892303466797e-01) (0, 3.58761548995971679688e-02) (1, 1.21741890907287597656e-01) (2, -8.62080752849578857422e-01) (0, 1.02270364761352539062e-01) (1, -5.04287123680114746094e-01) (2, 4.87383008003234863281e-01) (3, 9.25925970077514648438e-01) (4, -3.09224605560302734375e-01) (5, 6.62123560905456542969e-01) (6, -1.33709907531738281250e-02) (7, -4.12212133407592773438e-01) (8, 5.18646478652954101562e-01) (9, 2.65371918678283691406e-01) 
