FANN_FLO_2.1
num_layers=3
learning_rate=0.700000
connection_rate=1.000000
network_type=0
learning_momentum=0.000000
training_algorithm=2
train_error_function=1
train_stop_function=0
cascade_output_change_fraction=0.010000
quickprop_decay=-0.000100
quickprop_mu=1.750000
rprop_increase_factor=1.200000
rprop_decrease_factor=0.500000
rprop_delta_min=0.000000
rprop_delta_max=50.000000
rprop_delta_zero=0.100000
cascade_output_stagnation_epochs=12
cascade_candidate_change_fraction=0.010000
cascade_candidate_stagnation_epochs=12
cascade_max_out_epochs=150
cascade_min_out_epochs=50
cascade_max_cand_epochs=150
cascade_min_cand_epochs=50
cascade_num_candidate_groups=2
bit_fail_limit=3.49999994039535522461e-01
cascade_candidate_limit=1.00000000000000000000e+03
cascade_weight_multiplier=4.00000005960464477539e-01
cascade_activation_functions_count=10
cascade_activation_functions=3 5 7 8 10 11 14 15 16 17 
cascade_activation_steepnesses_count=4
cascade_activation_steepnesses=2.50000000000000000000e-01 5.00000000000000000000e-01 7.50000000000000000000e-01 1.00000000000000000000e+00 
layer_sizes=3 7 2 
scale_included=0
neurons (num_inputs, activation_function, activation_steepness)=(0, 0, 0.00000000000000000000e+00) (0, 0, 0.00000000000000000000e+00) (0, 0, 0.00000000000000000000e+00) (3, 4, 5.00000000000000000000e-01) (3, 4, 5.00000000000000000000e-01) (3, 4, 5.00000000000000000000e-01) (3, 4, 5.00000000000000000000e-01) (3, 4, 5.00000000000000000000e-01) (3, 4, 5.00000000000000000000e-01) (0, 0, 0.00000000000000000000e+00) (7, 4, 5.00000000000000000000e-01) (0, 0, 0.00000000000000000000e+00) 
connections (connected_to_neuron, weight)=(0, 4.28811550140380859375e-01) (1, 2.03302025794982910156e-01) (2, 5.81378936767578125000e-01) (0, -8.50021839141845703125e-03) (1, -7.88127183914184570312e-02) (2, -1.42024636268615722656e-01) (0, 1.78889870643615722656e-01) (1, -3.68783652782440185547e-01) (2, -7.17521429061889648438e-01) (0, 6.11703634262084960938e-01) (1, 1.98330640792846679688e-01) (2, -9.23892974853515625000e-01) (0, 8.85827541351318359375e-02) (1, 6.47954225540161132812e-01) (2, -8.39731574058532714844e-01) (0, 6.15808844566345214844e-01) (1, 6.56941652297973632812e-01) (2, 1.77424192428588867188e-01) (3, -4.00884687900543212891e-01) (4, 6.03453874588012695312e-01) (5, 7.90774226188659667969e-01) (6, -1.68670058250427246094e-01) (7, 6.14534616470336914062e-02) (8, -3.86097848415374755859e-01) (9, -1.49222791194915771484e-01) 
