FANN_FLO_2.1
num_layers=3
learning_rate=0.700000
connection_rate=1.000000
network_type=0
learning_momentum=0.000000
training_algorithm=2
train_error_function=1
train_stop_function=0
cascade_output_change_fraction=0.010000
quickprop_decay=-0.000100
quickprop_mu=1.750000
rprop_increase_factor=1.200000
rprop_decrease_factor=0.500000
rprop_delta_min=0.000000
rprop_delta_max=50.000000
rprop_delta_zero=0.100000
cascade_output_stagnation_epochs=12
cascade_candidate_change_fraction=0.010000
cascade_candidate_stagnation_epochs=12
cascade_max_out_epochs=150
cascade_min_out_epochs=50
cascade_max_cand_epochs=150
cascade_min_cand_epochs=50
cascade_num_candidate_groups=2
bit_fail_limit=3.49999994039535522461e-01
cascade_candidate_limit=1.00000000000000000000e+03
cascade_weight_multiplier=4.00000005960464477539e-01
cascade_activation_functions_count=10
cascade_activation_functions=3 5 7 8 10 11 14 15 16 17 
cascade_activation_steepnesses_count=4
cascade_activation_steepnesses=2.50000000000000000000e-01 5.00000000000000000000e-01 7.50000000000000000000e-01 1.00000000000000000000e+00 
layer_sizes=3 7 2 
scale_included=0
neurons (num_inputs, activation_function, activation_steepness)=(0, 0, 0.00000000000000000000e+00) (0, 0, 0.00000000000000000000e+00) (0, 0, 0.00000000000000000000e+00) (3, 4, 5.00000000000000000000e-01) (3, 4, 5.00000000000000000000e-01) (3, 4, 5.00000000000000000000e-01) (3, 4, 5.00000000000000000000e-01) (3, 4, 5.00000000000000000000e-01) (3, 4, 5.00000000000000000000e-01) (0, 0, 0.00000000000000000000e+00) (7, 4, 5.00000000000000000000e-01) (0, 0, 0.00000000000000000000e+00) 
connections (connected_to_neuron, weight)=(0, -6.84983015060424804688e-01) (1, -2.42805719375610351562e-01) (2, 5.21382689476013183594e-01) (0, -7.90647685527801513672e-01) (1, 6.56848192214965820312e-01) (2, 2.59487032890319824219e-01) (0, -3.29639911651611328125e-02) (1, -9.40237641334533691406e-02) (2, 1.79997682571411132812e-01) (0, 3.49490880966186523438e-01) (1, 8.96331310272216796875e-01) (2, -6.47269845008850097656e-01) (0, 6.49270415306091308594e-01) (1, -6.53501629829406738281e-01) (2, -4.36777174472808837891e-01) (0, 2.46268510818481445312e-02) (1, 1.83048486709594726562e-01) (2, 3.26906561851501464844e-01) (3, 2.12988853454589843750e-02) (4, 4.86272931098937988281e-01) (5, 7.08819031715393066406e-01) (6, -4.55566644668579101562e-02) (7, 8.14786076545715332031e-01) (8, -4.05868232250213623047e-01) (9, -6.15294218063354492188e-01) 
