FANN_FLO_2.1
num_layers=3
learning_rate=0.700000
connection_rate=1.000000
network_type=0
learning_momentum=0.000000
training_algorithm=2
train_error_function=1
train_stop_function=0
cascade_output_change_fraction=0.010000
quickprop_decay=-0.000100
quickprop_mu=1.750000
rprop_increase_factor=1.200000
rprop_decrease_factor=0.500000
rprop_delta_min=0.000000
rprop_delta_max=50.000000
rprop_delta_zero=0.100000
cascade_output_stagnation_epochs=12
cascade_candidate_change_fraction=0.010000
cascade_candidate_stagnation_epochs=12
cascade_max_out_epochs=150
cascade_min_out_epochs=50
cascade_max_cand_epochs=150
cascade_min_cand_epochs=50
cascade_num_candidate_groups=2
bit_fail_limit=3.49999994039535522461e-01
cascade_candidate_limit=1.00000000000000000000e+03
cascade_weight_multiplier=4.00000005960464477539e-01
cascade_activation_functions_count=10
cascade_activation_functions=3 5 7 8 10 11 14 15 16 17 
cascade_activation_steepnesses_count=4
cascade_activation_steepnesses=2.50000000000000000000e-01 5.00000000000000000000e-01 7.50000000000000000000e-01 1.00000000000000000000e+00 
layer_sizes=3 7 2 
scale_included=0
neurons (num_inputs, activation_function, activation_steepness)=(0, 0, 0.00000000000000000000e+00) (0, 0, 0.00000000000000000000e+00) (0, 0, 0.00000000000000000000e+00) (3, 4, 5.00000000000000000000e-01) (3, 4, 5.00000000000000000000e-01) (3, 4, 5.00000000000000000000e-01) (3, 4, 5.00000000000000000000e-01) (3, 4, 5.00000000000000000000e-01) (3, 4, 5.00000000000000000000e-01) (0, 0, 0.00000000000000000000e+00) (7, 4, 5.00000000000000000000e-01) (0, 0, 0.00000000000000000000e+00) 
connections (connected_to_neuron, weight)=(0, -1.29795014858245849609e-01) (1, 2.95083284378051757812e-01) (2, 9.49629306793212890625e-01) (0, -6.57554328441619873047e-01) (1, -6.14815473556518554688e-01) (2, -5.04010558128356933594e-01) (0, 1.09057426452636718750e-02) (1, 2.79145240783691406250e-01) (2, -3.07821333408355712891e-01) (0, -8.33929181098937988281e-02) (1, -7.70791530609130859375e-01) (2, 6.35823011398315429688e-02) (0, 6.58126831054687500000e-01) (1, 1.55313372611999511719e-01) (2, -2.00953006744384765625e-01) (0, -9.53542590141296386719e-02) (1, 8.93126606941223144531e-01) (2, 9.64194536209106445312e-01) (3, 6.65213465690612792969e-01) (4, -6.57250523567199707031e-01) (5, -7.89533436298370361328e-01) (6, 3.45114588737487792969e-01) (7, -3.95280003547668457031e-01) (8, -1.98227405548095703125e-01) (9, 6.75562620162963867188e-01) 
