FANN_FLO_2.1
num_layers=3
learning_rate=0.700000
connection_rate=1.000000
network_type=0
learning_momentum=0.000000
training_algorithm=2
train_error_function=1
train_stop_function=0
cascade_output_change_fraction=0.010000
quickprop_decay=-0.000100
quickprop_mu=1.750000
rprop_increase_factor=1.200000
rprop_decrease_factor=0.500000
rprop_delta_min=0.000000
rprop_delta_max=50.000000
rprop_delta_zero=0.100000
cascade_output_stagnation_epochs=12
cascade_candidate_change_fraction=0.010000
cascade_candidate_stagnation_epochs=12
cascade_max_out_epochs=150
cascade_min_out_epochs=50
cascade_max_cand_epochs=150
cascade_min_cand_epochs=50
cascade_num_candidate_groups=2
bit_fail_limit=3.49999994039535522461e-01
cascade_candidate_limit=1.00000000000000000000e+03
cascade_weight_multiplier=4.00000005960464477539e-01
cascade_activation_functions_count=10
cascade_activation_functions=3 5 7 8 10 11 14 15 16 17
cascade_activation_steepnesses_count=4
cascade_activation_steepnesses=2.50000000000000000000e-01 5.00000000000000000000e-01 7.50000000000000000000e-01 1.00000000000000000000e+00
layer_sizes=3 7 2
scale_included=0
neurons (num_inputs, activation_function, activation_steepness)=(0, 0, 0.00000000000000000000e+00) (0, 0, 0.00000000000000000000e+00) (0, 0, 0.00000000000000000000e+00) (3, 4, 5.00000000000000000000e-01) (3, 4, 5.00000000000000000000e-01) (3, 4, 5.00000000000000000000e-01) (3, 4, 5.00000000000000000000e-01) (3, 4, 5.00000000000000000000e-01) (3, 4, 5.00000000000000000000e-01) (0, 0, 0.00000000000000000000e+00) (7, 4, 5.00000000000000000000e-01) (0, 0, 0.00000000000000000000e+00)
connections (connected_to_neuron, weight)=(0, -9.36551034450531005859e-01) (1, -4.08127665519714355469e-01) (2, 6.34520888328552246094e-01) (0, -4.75681424140930175781e-02) (1, -7.50654578208923339844e-01) (2, 3.01126241683959960938e-02) (0, -4.13129627704620361328e-01) (1, -5.93588769435882568359e-01) (2, -9.50767040252685546875e-01) (0, 3.44556212425231933594e-01) (1, -7.28241562843322753906e-01) (2, 7.34907865524291992188e-01) (0, -3.73603880405426025391e-01) (1, -7.41172432899475097656e-01) (2, 8.64700913429260253906e-01) (0, 1.96794509887695312500e-01) (1, 2.48088002204895019531e-01) (2, 9.39235329627990722656e-01) (3, 5.32338142395019531250e-01) (4, -5.33049941062927246094e-01) (5, -5.56780695915222167969e-01) (6, 3.51674437522888183594e-01) (7, 9.99204635620117187500e-01) (8, 9.29200649261474609375e-03) (9, -2.43432998657226562500e-01)
