FANN_FLO_2.1
num_layers=3
learning_rate=0.700000
connection_rate=1.000000
network_type=0
learning_momentum=0.000000
training_algorithm=2
train_error_function=1
train_stop_function=0
cascade_output_change_fraction=0.010000
quickprop_decay=-0.000100
quickprop_mu=1.750000
rprop_increase_factor=1.200000
rprop_decrease_factor=0.500000
rprop_delta_min=0.000000
rprop_delta_max=50.000000
rprop_delta_zero=0.100000
cascade_output_stagnation_epochs=12
cascade_candidate_change_fraction=0.010000
cascade_candidate_stagnation_epochs=12
cascade_max_out_epochs=150
cascade_min_out_epochs=50
cascade_max_cand_epochs=150
cascade_min_cand_epochs=50
cascade_num_candidate_groups=2
bit_fail_limit=3.49999994039535522461e-01
cascade_candidate_limit=1.00000000000000000000e+03
cascade_weight_multiplier=4.00000005960464477539e-01
cascade_activation_functions_count=10
cascade_activation_functions=3 5 7 8 10 11 14 15 16 17 
cascade_activation_steepnesses_count=4
cascade_activation_steepnesses=2.50000000000000000000e-01 5.00000000000000000000e-01 7.50000000000000000000e-01 1.00000000000000000000e+00 
layer_sizes=3 7 2 
scale_included=0
neurons (num_inputs, activation_function, activation_steepness)=(0, 0, 0.00000000000000000000e+00) (0, 0, 0.00000000000000000000e+00) (0, 0, 0.00000000000000000000e+00) (3, 4, 5.00000000000000000000e-01) (3, 4, 5.00000000000000000000e-01) (3, 4, 5.00000000000000000000e-01) (3, 4, 5.00000000000000000000e-01) (3, 4, 5.00000000000000000000e-01) (3, 4, 5.00000000000000000000e-01) (0, 0, 0.00000000000000000000e+00) (7, 4, 5.00000000000000000000e-01) (0, 0, 0.00000000000000000000e+00) 
connections (connected_to_neuron, weight)=(0, 3.43041896820068359375e-01) (1, 4.49372649192810058594e-01) (2, 2.14053392410278320312e-01) (0, -9.09794688224792480469e-01) (1, 5.04589438438415527344e-01) (2, 9.20467615127563476562e-01) (0, 1.54799580574035644531e-01) (1, 9.83438968658447265625e-01) (2, 9.48537111282348632812e-01) (0, -8.80634427070617675781e-01) (1, -2.67656326293945312500e-01) (2, 2.80789375305175781250e-01) (0, -7.34128415584564208984e-01) (1, -4.75356340408325195312e-01) (2, -1.32700383663177490234e-01) (0, 2.30632424354553222656e-01) (1, 3.11145901679992675781e-01) (2, -8.72190773487091064453e-01) (3, 3.09378504753112792969e-01) (4, 8.65420103073120117188e-02) (5, -4.85974609851837158203e-01) (6, 9.64411377906799316406e-01) (7, 7.53168821334838867188e-01) (8, -4.24915671348571777344e-01) (9, 3.36872935295104980469e-01) 
