FANN_FLO_2.1
num_layers=3
learning_rate=0.700000
connection_rate=1.000000
network_type=0
learning_momentum=0.000000
training_algorithm=2
train_error_function=1
train_stop_function=0
cascade_output_change_fraction=0.010000
quickprop_decay=-0.000100
quickprop_mu=1.750000
rprop_increase_factor=1.200000
rprop_decrease_factor=0.500000
rprop_delta_min=0.000000
rprop_delta_max=50.000000
rprop_delta_zero=0.100000
cascade_output_stagnation_epochs=12
cascade_candidate_change_fraction=0.010000
cascade_candidate_stagnation_epochs=12
cascade_max_out_epochs=150
cascade_min_out_epochs=50
cascade_max_cand_epochs=150
cascade_min_cand_epochs=50
cascade_num_candidate_groups=2
bit_fail_limit=3.49999994039535522461e-01
cascade_candidate_limit=1.00000000000000000000e+03
cascade_weight_multiplier=4.00000005960464477539e-01
cascade_activation_functions_count=10
cascade_activation_functions=3 5 7 8 10 11 14 15 16 17 
cascade_activation_steepnesses_count=4
cascade_activation_steepnesses=2.50000000000000000000e-01 5.00000000000000000000e-01 7.50000000000000000000e-01 1.00000000000000000000e+00 
layer_sizes=3 7 2 
scale_included=0
neurons (num_inputs, activation_function, activation_steepness)=(0, 0, 0.00000000000000000000e+00) (0, 0, 0.00000000000000000000e+00) (0, 0, 0.00000000000000000000e+00) (3, 4, 5.00000000000000000000e-01) (3, 4, 5.00000000000000000000e-01) (3, 4, 5.00000000000000000000e-01) (3, 4, 5.00000000000000000000e-01) (3, 4, 5.00000000000000000000e-01) (3, 4, 5.00000000000000000000e-01) (0, 0, 0.00000000000000000000e+00) (7, 4, 5.00000000000000000000e-01) (0, 0, 0.00000000000000000000e+00) 
connections (connected_to_neuron, weight)=(0, 4.00780200958251953125e-01) (1, -8.19126129150390625000e-01) (2, 3.72474193572998046875e-01) (0, -5.72556853294372558594e-01) (1, -1.77690386772155761719e-01) (2, -6.99633717536926269531e-01) (0, -9.90081608295440673828e-01) (1, -6.35340690612792968750e-01) (2, -2.48433053493499755859e-01) (0, 2.91821718215942382812e-01) (1, -1.87001347541809082031e-01) (2, 8.75301361083984375000e-02) (0, 1.42673730850219726562e-01) (1, -2.29648113250732421875e-01) (2, 3.86692047119140625000e-01) (0, 9.09328460693359375000e-04) (1, -6.09560966491699218750e-01) (2, -4.86091613769531250000e-01) (3, 8.39117288589477539062e-01) (4, 4.43961858749389648438e-01) (5, -2.88045227527618408203e-01) (6, -9.97469782829284667969e-01) (7, 8.30328822135925292969e-01) (8, 6.97742223739624023438e-01) (9, -7.11243152618408203125e-02) 
