FANN_FLO_2.1
num_layers=3
learning_rate=0.700000
connection_rate=1.000000
network_type=0
learning_momentum=0.000000
training_algorithm=2
train_error_function=1
train_stop_function=0
cascade_output_change_fraction=0.010000
quickprop_decay=-0.000100
quickprop_mu=1.750000
rprop_increase_factor=1.200000
rprop_decrease_factor=0.500000
rprop_delta_min=0.000000
rprop_delta_max=50.000000
rprop_delta_zero=0.100000
cascade_output_stagnation_epochs=12
cascade_candidate_change_fraction=0.010000
cascade_candidate_stagnation_epochs=12
cascade_max_out_epochs=150
cascade_min_out_epochs=50
cascade_max_cand_epochs=150
cascade_min_cand_epochs=50
cascade_num_candidate_groups=2
bit_fail_limit=3.49999994039535522461e-01
cascade_candidate_limit=1.00000000000000000000e+03
cascade_weight_multiplier=4.00000005960464477539e-01
cascade_activation_functions_count=10
cascade_activation_functions=3 5 7 8 10 11 14 15 16 17 
cascade_activation_steepnesses_count=4
cascade_activation_steepnesses=2.50000000000000000000e-01 5.00000000000000000000e-01 7.50000000000000000000e-01 1.00000000000000000000e+00 
layer_sizes=3 7 2 
scale_included=0
neurons (num_inputs, activation_function, activation_steepness)=(0, 0, 0.00000000000000000000e+00) (0, 0, 0.00000000000000000000e+00) (0, 0, 0.00000000000000000000e+00) (3, 4, 5.00000000000000000000e-01) (3, 4, 5.00000000000000000000e-01) (3, 4, 5.00000000000000000000e-01) (3, 4, 5.00000000000000000000e-01) (3, 4, 5.00000000000000000000e-01) (3, 4, 5.00000000000000000000e-01) (0, 0, 0.00000000000000000000e+00) (7, 4, 5.00000000000000000000e-01) (0, 0, 0.00000000000000000000e+00) 
connections (connected_to_neuron, weight)=(0, 4.67417120933532714844e-01) (1, 5.63779830932617187500e-01) (2, -1.68971240520477294922e-01) (0, -4.39015448093414306641e-01) (1, -3.63329112529754638672e-01) (2, 3.97909879684448242188e-01) (0, 8.77639770507812500000e-01) (1, -8.48990678787231445312e-02) (2, 3.65325570106506347656e-01) (0, -2.46161580085754394531e-01) (1, -9.29223001003265380859e-01) (2, 7.11226940155029296875e-01) (0, 7.34231352806091308594e-01) (1, 2.95023560523986816406e-01) (2, 4.75429415702819824219e-01) (0, -8.67456316947937011719e-01) (1, -7.06319272518157958984e-01) (2, -4.94976282119750976562e-01) (3, -7.46194839477539062500e-01) (4, -2.57350862026214599609e-01) (5, 8.69852185249328613281e-01) (6, 6.35987281799316406250e-01) (7, -1.50947749614715576172e-01) (8, -1.78185105323791503906e-01) (9, -5.25603294372558593750e-02) 
